\data\
ngram 1=3
ngram 2=2
ngram 3=1

\1-grams:
-0.1761 <s> -0.1761
-0.2218 hello -0.2218
-0.3010 world -0.3010
\2-grams:
-0.097 <s> hello -0.2218
-0.3010 hello world -0.3010
\3-grams:
-0.0458 <s> hello world
\end\
